{
    "obj_num": 1,
    "0_weights": [
        [
            30.750722885131836,
            -15.151890754699707,
            24.856441497802734,
            5.604434013366699,
            4.966940402984619,
            -4.264236927032471,
            -6.635754108428955,
            9.28652572631836,
            -10.907865524291992,
            -15.804944038391113,
            -5.295602798461914,
            -5.080133438110352,
            -28.290637969970703,
            -6.631107807159424,
            11.88740348815918,
            12.21241283416748
        ],
        [
            -23.65018653869629,
            -640.3985595703125,
            -19.49811553955078,
            12.224513053894043,
            11.582426071166992,
            -15.945207595825195,
            5.7749552726745605,
            -42.04567337036133,
            -24.827049255371094,
            1.055528998374939,
            2.727172613143921,
            -3.0364415645599365,
            -42.862510681152344,
            0.22975598275661469,
            16.270307540893555,
            9.864129066467285
        ],
        [
            -11.007451057434082,
            3.386847734451294,
            -2.948762893676758,
            -0.1745496690273285,
            -6.743594646453857,
            12.368378639221191,
            -11.555952072143555,
            -8.451873779296875,
            -31.60857582092285,
            -5.451153755187988,
            3.6111273765563965,
            8.392053604125977,
            -4.836136341094971,
            -8.490214347839355,
            7.6525492668151855,
            20.834585189819336
        ],
        [
            -38.187782287597656,
            -4.813530445098877,
            -12.611007690429688,
            -2.9595065116882324,
            3.081235647201538,
            -150.930419921875,
            17.881786346435547,
            4.568949222564697,
            -1.8338366746902466,
            -21.241615295410156,
            3.3877182006835938,
            -3.2063558101654053,
            -6.792898178100586,
            -12.10410213470459,
            -22.956464767456055,
            -18.382295608520508
        ],
        [
            -31.410282135009766,
            -174.7349853515625,
            -3.1344153881073,
            2.9188756942749023,
            2.947916030883789,
            13.623208045959473,
            5.328790664672852,
            -6.341822147369385,
            23.895774841308594,
            -13.97021198272705,
            -0.9795020222663879,
            2.6479783058166504,
            -7.4144182205200195,
            -5.026395797729492,
            -12.357660293579102,
            9.668622970581055
        ],
        [
            -27.4718017578125,
            1.446913719177246,
            6.2605133056640625,
            -5.030934810638428,
            11.730447769165039,
            -20.001283645629883,
            -11.425678253173828,
            -9.628238677978516,
            1.6297962665557861,
            -15.458442687988281,
            3.7501533031463623,
            11.732884407043457,
            0.24510176479816437,
            -4.285632610321045,
            -1.6306440830230713,
            4.039368152618408
        ],
        [
            15.950738906860352,
            -1.6949223279953003,
            -4.300142765045166,
            -2.610741138458252,
            -24.168947219848633,
            4.717721939086914,
            11.030945777893066,
            9.71076488494873,
            -51.7755012512207,
            -20.269807815551758,
            11.806299209594727,
            -2.662266731262207,
            3.923966884613037,
            -11.535387992858887,
            -4.5675249099731445,
            -15.242878913879395
        ],
        [
            16.13864517211914,
            16.301074981689453,
            2.412334680557251,
            9.950926780700684,
            12.01180362701416,
            4.793013095855713,
            3.9801158905029297,
            13.210123062133789,
            2.3647661209106445,
            -14.692118644714355,
            -8.326984405517578,
            2.0492446422576904,
            14.68852424621582,
            -13.286087989807129,
            0.863868772983551,
            -26.483957290649414
        ],
        [
            -0.28276097774505615,
            -0.0861063227057457,
            0.8046049475669861,
            0.942200243473053,
            -0.3892616033554077,
            -0.5572369694709778,
            0.3102260231971741,
            -0.1208781898021698,
            -3.1466143131256104,
            0.1263771802186966,
            0.7221827507019043,
            0.1913864016532898,
            1.2784417867660522,
            -0.29474371671676636,
            -0.1608366072177887,
            0.2537129819393158
        ],
        [
            6.130602836608887,
            0.15778805315494537,
            -0.5979890823364258,
            1.390398383140564,
            -0.5330009460449219,
            -1.9046176671981812,
            1.5863689184188843,
            0.6110599637031555,
            0.8374139070510864,
            0.31821149587631226,
            1.0608437061309814,
            -0.2174106240272522,
            -0.25875619053840637,
            0.03174528852105141,
            -0.889796257019043,
            -1.0469567775726318
        ],
        [
            -5.819394111633301,
            -9.073380470275879,
            -0.31200534105300903,
            5.783770561218262,
            -0.06858792901039124,
            -7.675622463226318,
            1.8754247426986694,
            2.939080238342285,
            2.2732362747192383,
            -0.3964417278766632,
            4.475090503692627,
            -0.29218730330467224,
            2.645340919494629,
            -0.1768506020307541,
            -4.664100170135498,
            -1.2909210920333862
        ]
    ],
    "0_bias": [
        -11.988561630249023,
        3.0653653144836426,
        -1.1088147163391113,
        -4.413507461547852,
        1.0087831020355225,
        -0.3985074758529663,
        -2.2852766513824463,
        2.771932363510132,
        -4.868912696838379,
        -0.7407538890838623,
        -5.106564998626709,
        0.09840929508209229,
        4.459195613861084,
        -1.3425759077072144,
        0.671997606754303,
        2.1892917156219482
    ],
    "1_weights": [
        [
            -0.7655207514762878,
            -1.0227009057998657,
            -0.1617397516965866,
            -0.13818225264549255,
            0.3087962865829468,
            0.12983807921409607,
            0.4833885729312897,
            0.38820403814315796,
            -0.046250730752944946,
            0.11593887209892273,
            -0.40118253231048584,
            0.22756369411945343,
            -2.0589451789855957,
            -2.0729005336761475,
            -0.36312350630760193,
            0.11590748280286789
        ],
        [
            -0.09171038866043091,
            -0.07080336660146713,
            -0.22730284929275513,
            -0.18883071839809418,
            0.030968818813562393,
            -0.14149488508701324,
            -0.07110388576984406,
            0.3994353413581848,
            0.29321715235710144,
            -0.23317210376262665,
            0.08785123378038406,
            0.3262871205806732,
            -1.4183562994003296,
            -0.3123193681240082,
            -0.4854527711868286,
            -0.18212208151817322
        ],
        [
            0.32970771193504333,
            -0.11728895455598831,
            0.14280541241168976,
            -0.4209788739681244,
            -0.23471099138259888,
            -0.15679103136062622,
            -0.17524099349975586,
            0.42471882700920105,
            0.08573003858327866,
            -0.3091032803058624,
            0.25395920872688293,
            -0.27616289258003235,
            -2.0755786895751953,
            -0.049690131098032,
            -0.2693919241428375,
            -0.2427869439125061
        ],
        [
            -0.45159032940864563,
            0.23220950365066528,
            -0.4821447730064392,
            -0.550912618637085,
            0.2978217303752899,
            0.04121377691626549,
            0.12644422054290771,
            -6.723702430725098,
            -0.6310859322547913,
            -0.6431345343589783,
            -0.16338008642196655,
            -1.5384249687194824,
            -0.03462960571050644,
            0.4071396589279175,
            -0.19471879303455353,
            0.3540283441543579
        ],
        [
            0.2108548879623413,
            0.25574636459350586,
            -0.5491361021995544,
            -0.1419207602739334,
            0.32780560851097107,
            -0.24019141495227814,
            0.3935050964355469,
            -0.5690165758132935,
            -0.12824426591396332,
            0.11285949498414993,
            -0.12922403216362,
            0.14358627796173096,
            -1.9483461380004883,
            0.07219924032688141,
            0.16353842616081238,
            0.12383510172367096
        ],
        [
            0.5907329320907593,
            0.1361066848039627,
            0.15788638591766357,
            -0.2933793365955353,
            0.6261581778526306,
            0.049071911722421646,
            -0.5411182045936584,
            -0.03052687644958496,
            0.10021450370550156,
            -0.0341278538107872,
            0.18371134996414185,
            -0.024726107716560364,
            0.737002968788147,
            -2.536607265472412,
            -0.06201804801821709,
            -0.01399967074394226
        ],
        [
            0.07849094271659851,
            -0.5752131342887878,
            -0.5485001802444458,
            -0.21721632778644562,
            -0.05719885230064392,
            0.2405574470758438,
            -0.3993643522262573,
            0.1626167744398117,
            -0.494730681180954,
            -0.07994230836629868,
            -0.22794166207313538,
            0.1338476538658142,
            -0.4447613060474396,
            0.3070095479488373,
            -0.22422800958156586,
            -0.120828777551651
        ],
        [
            -0.3250110447406769,
            -0.1433437466621399,
            -0.547858715057373,
            -0.20483265817165375,
            0.3007792830467224,
            0.1749655157327652,
            -0.17556442320346832,
            -0.3985230028629303,
            -0.4705268144607544,
            -0.09364840388298035,
            -0.4763716459274292,
            -0.38683173060417175,
            0.04747924208641052,
            -0.1520008146762848,
            0.33529260754585266,
            0.004965322092175484
        ],
        [
            0.06168321520090103,
            0.30217278003692627,
            -0.13094772398471832,
            -0.05426095426082611,
            0.6650639176368713,
            0.309167742729187,
            -0.15394452214241028,
            -1.4026694297790527,
            0.2610558271408081,
            0.33240780234336853,
            -0.3664606809616089,
            -0.2666616439819336,
            0.49260833859443665,
            -2.764336109161377,
            0.20733240246772766,
            -0.24886052310466766
        ],
        [
            -0.3507848381996155,
            -0.19597592949867249,
            0.22590850293636322,
            0.3911709487438202,
            0.19797980785369873,
            -0.18409797549247742,
            0.0458364300429821,
            -0.2530248165130615,
            0.1745702028274536,
            -0.2738010883331299,
            -0.211697518825531,
            0.3926928639411926,
            -0.5944553017616272,
            -0.39567363262176514,
            -0.07452676445245743,
            -0.1860775649547577
        ],
        [
            -0.5183064341545105,
            -0.17726759612560272,
            -0.5792751908302307,
            0.0036764598917216063,
            -0.45213815569877625,
            0.42952513694763184,
            -4.390561103820801,
            0.5209891200065613,
            -0.3600568473339081,
            0.4860137104988098,
            -0.9194235801696777,
            0.4769587814807892,
            -0.5403612852096558,
            -1.8261357545852661,
            -0.19618426263332367,
            0.18164274096488953
        ],
        [
            -0.14666183292865753,
            -0.05659099668264389,
            -0.0017300463514402509,
            -0.6316778063774109,
            -1.5573824644088745,
            0.0699373111128807,
            -1.18227219581604,
            -0.141030952334404,
            -0.4533925950527191,
            0.2791003882884979,
            -0.24129906296730042,
            -0.0812271386384964,
            -0.38572224974632263,
            -0.3839828372001648,
            -0.029153205454349518,
            -0.10385867953300476
        ],
        [
            -0.10428182780742645,
            -0.3678707182407379,
            -0.9615046977996826,
            -0.5099902153015137,
            -0.20378386974334717,
            0.13335005939006805,
            -0.7615863680839539,
            -0.35433241724967957,
            -0.4703812599182129,
            -0.045367706567049026,
            -0.24816381931304932,
            -0.19884039461612701,
            -0.6159565448760986,
            -0.512788712978363,
            -0.003690744750201702,
            -0.14743179082870483
        ],
        [
            0.372183620929718,
            0.40948599576950073,
            0.3576414883136749,
            0.46790874004364014,
            0.39778923988342285,
            -0.03710375353693962,
            -0.14568060636520386,
            0.2424839287996292,
            0.049512267112731934,
            0.4072754979133606,
            0.2102302461862564,
            -0.24311591684818268,
            -0.21789684891700745,
            0.0028149352874606848,
            0.12154340744018555,
            0.24602027237415314
        ],
        [
            -0.1301092803478241,
            0.07361065596342087,
            0.02343287318944931,
            -0.15324808657169342,
            0.004197071306407452,
            -0.4118809401988983,
            -0.32891735434532166,
            -0.27275550365448,
            -0.07861015200614929,
            0.1523849219083786,
            -0.5202150344848633,
            -0.337573379278183,
            -4.795360565185547,
            -0.47019845247268677,
            0.1866404116153717,
            0.1095685362815857
        ],
        [
            0.3009956181049347,
            0.30511510372161865,
            -0.8097608685493469,
            -0.2861380875110626,
            -0.04548196122050285,
            -0.23552434146404266,
            -0.30032771825790405,
            -0.09603622555732727,
            -0.45321786403656006,
            0.14849914610385895,
            -0.47487586736679077,
            -0.0406428799033165,
            0.28015026450157166,
            -1.4277757406234741,
            0.10359495133161545,
            0.0336020290851593
        ]
    ],
    "1_bias": [
        0.0,
        0.0,
        0.0,
        0.0,
        0.0,
        0.0,
        0.0,
        0.0,
        0.0,
        0.0,
        0.0,
        0.0,
        0.0,
        0.0,
        0.0,
        0.0
    ],
    "2_weights": [
        [
            -0.11899346858263016,
            -0.14926469326019287,
            -0.11243806034326553
        ],
        [
            -0.1806280016899109,
            -0.08081606775522232,
            -0.09409341216087341
        ],
        [
            0.4061952531337738,
            -0.27220192551612854,
            0.16763707995414734
        ],
        [
            -0.1687404364347458,
            0.11060918122529984,
            0.35038918256759644
        ],
        [
            -0.008819722570478916,
            0.05246707424521446,
            0.1472446173429489
        ],
        [
            0.21556216478347778,
            0.17328187823295593,
            0.10854127258062363
        ],
        [
            0.12523390352725983,
            -0.07055602967739105,
            -0.03577392175793648
        ],
        [
            0.12087085098028183,
            -0.16005344688892365,
            -0.09850215166807175
        ],
        [
            0.1547277867794037,
            -0.045668527483940125,
            -0.0524640716612339
        ],
        [
            -0.018647637218236923,
            -0.1059742420911789,
            -0.1528961956501007
        ],
        [
            0.23131000995635986,
            0.0231644157320261,
            0.10352223366498947
        ],
        [
            -0.18280066549777985,
            0.09824556112289429,
            -0.047990329563617706
        ],
        [
            -0.17324483394622803,
            -0.18075481057167053,
            -0.14650030434131622
        ],
        [
            0.1217072382569313,
            0.05483422055840492,
            0.07844889909029007
        ],
        [
            -0.076885886490345,
            -0.05107537657022476,
            0.055770471692085266
        ],
        [
            -0.14157834649085999,
            0.1630433201789856,
            -0.07308562099933624
        ]
    ],
    "2_bias": [
        0.0,
        0.0,
        0.0
    ]
}