{
    "obj_num": 1,
    "0_weights": [
        [
            3.1485443115234375,
            -0.23628348112106323,
            -0.4255805015563965,
            5.7169270515441895,
            3.54034423828125,
            55.24587631225586,
            7.8013014793396,
            28.826696395874023,
            11.456759452819824,
            -6.053776741027832,
            3.1551709175109863,
            8.21706485748291,
            -8.626408576965332,
            6.152767181396484,
            5.971173286437988,
            12.86229419708252
        ],
        [
            -0.9121748805046082,
            -13.818222999572754,
            -2.135380744934082,
            2.7762668132781982,
            -5.6144561767578125,
            -32.155784606933594,
            -4.0201416015625,
            -14.576667785644531,
            3.824256420135498,
            0.7299764752388,
            -16.063541412353516,
            -4.197155475616455,
            -5.042675018310547,
            6.378836154937744,
            -5.538422107696533,
            12.76485538482666
        ],
        [
            10.216593742370605,
            4.493499279022217,
            -0.7797444462776184,
            -7.914416790008545,
            -0.39719289541244507,
            -2.4477458000183105,
            -1.6592522859573364,
            -13.847251892089844,
            -29.616708755493164,
            14.966702461242676,
            6.5555291175842285,
            4.14102840423584,
            -15.705942153930664,
            3.2267062664031982,
            14.740740776062012,
            14.848567008972168
        ],
        [
            -12.543216705322266,
            -8.001827239990234,
            -26.29684829711914,
            -10.559599876403809,
            -4.691904067993164,
            -42.592681884765625,
            8.982836723327637,
            12.834870338439941,
            -18.099950790405273,
            8.260486602783203,
            -11.003506660461426,
            -45.55720520019531,
            -7.320601940155029,
            3.3349788188934326,
            -0.6342292428016663,
            -8.121109962463379
        ],
        [
            0.5199785232543945,
            -36.24892044067383,
            0.7579134106636047,
            -6.614166259765625,
            -2.387233018875122,
            -46.015289306640625,
            1.8395003080368042,
            -15.179229736328125,
            14.136585235595703,
            -7.050295829772949,
            13.785073280334473,
            11.436551094055176,
            23.503942489624023,
            -28.209375381469727,
            -1.3905470371246338,
            8.653848648071289
        ],
        [
            -12.791716575622559,
            -26.534921646118164,
            10.302699089050293,
            -2.740353584289551,
            -0.6637527942657471,
            -36.01152801513672,
            16.055864334106445,
            -1.5758373737335205,
            1.9529542922973633,
            -14.469039916992188,
            1.6482810974121094,
            -18.024227142333984,
            -45.64708709716797,
            17.643686294555664,
            -7.583963871002197,
            2.8368747234344482
        ],
        [
            0.40541571378707886,
            10.534991264343262,
            12.057462692260742,
            11.834845542907715,
            -15.728060722351074,
            -101.18482208251953,
            -2.75618052482605,
            8.630833625793457,
            -31.851909637451172,
            -13.650928497314453,
            -89.16484832763672,
            -18.47865867614746,
            16.403553009033203,
            10.605868339538574,
            2.612149238586426,
            -26.44597625732422
        ],
        [
            6.789349555969238,
            5.570245742797852,
            0.4749457836151123,
            4.987254619598389,
            5.712578296661377,
            13.087166786193848,
            2.6653032302856445,
            12.35350227355957,
            -16.56715202331543,
            12.674461364746094,
            17.68876838684082,
            -8.191292762756348,
            13.332191467285156,
            -5.556005001068115,
            4.40778923034668,
            -7.857837200164795
        ],
        [
            -1.9694304466247559,
            -1.706932783126831,
            0.4503984749317169,
            -0.048705555498600006,
            0.14181213080883026,
            -1.0787763595581055,
            0.2866065502166748,
            0.3052639663219452,
            0.36765632033348083,
            0.4548717141151428,
            -2.6391758918762207,
            -1.2817429304122925,
            0.7305540442466736,
            -1.2392809391021729,
            1.1089794635772705,
            -0.07857421785593033
        ],
        [
            -12.22434139251709,
            -6.121345043182373,
            -0.7747240662574768,
            1.4672421216964722,
            -0.39556559920310974,
            2.5767366886138916,
            0.3514557480812073,
            1.4408986568450928,
            -2.216679573059082,
            -0.38738012313842773,
            -1.7411582469940186,
            0.9441113471984863,
            0.09551142901182175,
            -3.165236473083496,
            1.454300880432129,
            -1.354078769683838
        ],
        [
            0.9807332158088684,
            -4.109041213989258,
            -1.1067886352539062,
            6.019583225250244,
            0.7811760306358337,
            1.0841132402420044,
            2.212388038635254,
            3.7362451553344727,
            -0.6717828512191772,
            1.3440219163894653,
            6.155646324157715,
            -0.2610885500907898,
            -4.202977657318115,
            -8.163589477539062,
            1.8093769550323486,
            -0.016963575035333633
        ]
    ],
    "0_bias": [
        -1.5610580444335938,
        1.0981590747833252,
        1.035032033920288,
        -0.014185801148414612,
        5.532813549041748,
        -4.18196439743042,
        -3.363276243209839,
        1.7221678495407104,
        -1.8134686946868896,
        -2.0934700965881348,
        -8.724889755249023,
        3.405935764312744,
        -4.369656562805176,
        -6.648889541625977,
        -0.7685612440109253,
        0.4693901538848877
    ],
    "1_weights": [
        [
            -0.2049192190170288,
            -0.374856561422348,
            -0.13411736488342285,
            0.013756666332483292,
            -2.843134880065918,
            0.3137395679950714,
            -4.997299671173096,
            -0.6147496700286865,
            0.17727358639240265,
            -0.16803069412708282,
            -1.8280813694000244,
            -0.1486489325761795,
            -0.5529580116271973,
            -0.29357126355171204,
            0.5608684420585632,
            0.1990007907152176
        ],
        [
            -1.2122045755386353,
            -1.0885640382766724,
            -2.874462366104126,
            1.5611292123794556,
            0.06078189238905907,
            -0.23410241305828094,
            -1.6334013938903809,
            -0.5218713879585266,
            -0.4316750466823578,
            -0.020055929198861122,
            -0.2981649339199066,
            0.2637006342411041,
            -0.31044360995292664,
            0.33817777037620544,
            -1.4471102952957153,
            -0.33433037996292114
        ],
        [
            0.16758756339550018,
            -0.1291913539171219,
            -0.040999483317136765,
            -1.4012469053268433,
            0.02378877066075802,
            0.04450174793601036,
            0.4691288471221924,
            -0.0049161785282194614,
            -0.3594318628311157,
            0.019719772040843964,
            1.0714972019195557,
            -2.857966423034668,
            -0.23425346612930298,
            -0.23329266905784607,
            -0.17770589888095856,
            -0.05849218741059303
        ],
        [
            0.024852421134710312,
            -0.24232813715934753,
            -1.807303547859192,
            -3.972419261932373,
            -0.07113770395517349,
            0.20656442642211914,
            0.0017536587547510862,
            -0.8302620649337769,
            -0.5671255588531494,
            0.5294756889343262,
            -0.6625490188598633,
            0.4368779957294464,
            -0.10063552856445312,
            -0.1962800770998001,
            -1.2526108026504517,
            -0.352617084980011
        ],
        [
            -0.04986065626144409,
            0.12911063432693481,
            -0.41787439584732056,
            0.04566321521997452,
            0.25430864095687866,
            -0.3205825388431549,
            -0.5929630398750305,
            -0.5070083737373352,
            0.34274518489837646,
            -0.07430243492126465,
            -4.3535475730896,
            -0.18793882429599762,
            -0.4726540148258209,
            -0.5942206978797913,
            -0.3804037272930145,
            -0.18258042633533478
        ],
        [
            -0.533261775970459,
            -0.5582147836685181,
            0.12872977554798126,
            -1.7207657098770142,
            0.5031877756118774,
            0.4140033423900604,
            -3.5901336669921875,
            0.026416204869747162,
            -1.882544994354248,
            0.07390571385622025,
            0.18711072206497192,
            -0.86861652135849,
            -0.23578600585460663,
            0.28451064229011536,
            -0.6189321279525757,
            -0.3777713477611542
        ],
        [
            0.0382852666079998,
            0.03203924372792244,
            -0.23021315038204193,
            -1.621604561805725,
            0.02764948457479477,
            0.025064578279852867,
            -0.057133786380290985,
            -0.4358491003513336,
            -0.521568238735199,
            -0.16751432418823242,
            -1.3399577140808105,
            0.10945849865674973,
            -0.5260118246078491,
            -0.42694613337516785,
            -1.2718281745910645,
            -0.09479296207427979
        ],
        [
            -0.025059934705495834,
            -0.3839547634124756,
            -0.06990370154380798,
            0.35914772748947144,
            0.2580310106277466,
            0.42223960161209106,
            0.3305603861808777,
            -0.42210426926612854,
            0.06362810730934143,
            -0.2909969687461853,
            -0.7420629858970642,
            -0.2951589524745941,
            -0.13467498123645782,
            -0.0630541518330574,
            -0.7320598363876343,
            -0.18311700224876404
        ],
        [
            -0.05733247473835945,
            0.20871378481388092,
            -0.0017821312649175525,
            -0.5140540599822998,
            0.2491731196641922,
            -0.8315155506134033,
            -2.0943233966827393,
            -0.4314554035663605,
            -0.06325659900903702,
            -0.16588321328163147,
            -0.958935558795929,
            -0.6578285694122314,
            0.20308348536491394,
            -7.500681400299072,
            0.3493756055831909,
            0.05393478646874428
        ],
        [
            -0.23579221963882446,
            -0.3053600490093231,
            0.48917895555496216,
            0.17434631288051605,
            0.08444387465715408,
            0.07787924259901047,
            -11.246094703674316,
            -0.8323677182197571,
            -0.2662714719772339,
            0.5653101801872253,
            -3.270617723464966,
            0.5565920472145081,
            0.12934094667434692,
            -0.41631826758384705,
            -0.874865710735321,
            -0.29618895053863525
        ],
        [
            -0.5544371008872986,
            -0.178807333111763,
            -0.2857723534107208,
            -0.5797622799873352,
            0.3473014533519745,
            0.3664197623729706,
            -2.6870505809783936,
            -0.03238050639629364,
            -0.2879909873008728,
            0.20530065894126892,
            -0.5402408242225647,
            -0.26202014088630676,
            0.0011444786796346307,
            -1.1233009099960327,
            -0.23008163273334503,
            -0.3906320035457611
        ],
        [
            0.25118136405944824,
            -0.023889867588877678,
            0.05110173672437668,
            -0.5613843202590942,
            -0.4353507459163666,
            0.017446285113692284,
            1.102173089981079,
            -0.3185020387172699,
            -0.12006671726703644,
            -0.2227657586336136,
            -4.251668930053711,
            0.6464879512786865,
            -0.17259325087070465,
            0.4439185559749603,
            -0.7569771409034729,
            0.19863121211528778
        ],
        [
            0.1952374428510666,
            0.7785834074020386,
            -0.37476733326911926,
            -22.08452606201172,
            -0.3116639256477356,
            -0.09012767672538757,
            -0.8603107929229736,
            -0.29028984904289246,
            0.08094056695699692,
            -0.03248798847198486,
            -2.8543624877929688,
            -0.6546759009361267,
            -0.06205524876713753,
            -0.0759199783205986,
            -0.48071104288101196,
            0.30095332860946655
        ],
        [
            0.48403334617614746,
            0.0387989766895771,
            0.11830292642116547,
            -0.2521595358848572,
            -0.169143944978714,
            -0.35281863808631897,
            -2.0283396244049072,
            -0.08915185183286667,
            0.14521080255508423,
            -0.08450983464717865,
            -0.577223539352417,
            0.10556299984455109,
            -0.5383473038673401,
            0.38048452138900757,
            -0.20026132464408875,
            0.23423795402050018
        ],
        [
            -0.035370055586099625,
            -0.15820899605751038,
            -0.030784230679273605,
            0.08761363476514816,
            -0.4041581153869629,
            0.20719288289546967,
            -0.7583311200141907,
            -0.07048593461513519,
            0.18409188091754913,
            0.16823595762252808,
            -1.1525086164474487,
            -0.20453743636608124,
            -0.6631380915641785,
            0.27603620290756226,
            -0.08073100447654724,
            0.32753461599349976
        ],
        [
            0.29864633083343506,
            0.33903127908706665,
            -0.048612356185913086,
            -0.1432536244392395,
            -0.13819745182991028,
            -0.2697722911834717,
            -0.4883250594139099,
            -0.7964636087417603,
            0.10308633744716644,
            0.07520593702793121,
            -0.168369859457016,
            -0.08540346473455429,
            -0.11372959613800049,
            -0.25001025199890137,
            -0.2283458411693573,
            0.19068288803100586
        ]
    ],
    "1_bias": [
        0.0,
        0.0,
        0.0,
        0.0,
        0.0,
        0.0,
        0.0,
        0.0,
        0.0,
        0.0,
        0.0,
        0.0,
        0.0,
        0.0,
        0.0,
        0.0
    ],
    "2_weights": [
        [
            -0.13347335159778595,
            -0.12450005859136581,
            -0.08534614741802216
        ],
        [
            -0.14514222741127014,
            -0.11149150133132935,
            -0.06781355291604996
        ],
        [
            0.2573774456977844,
            -0.04262053966522217,
            0.03238586336374283
        ],
        [
            0.3442279100418091,
            -0.11763913184404373,
            -0.026080390438437462
        ],
        [
            -0.0756949931383133,
            0.0022476958110928535,
            0.1368798464536667
        ],
        [
            0.18890579044818878,
            0.15306274592876434,
            0.09660979360342026
        ],
        [
            0.032283175736665726,
            0.014704843051731586,
            0.11068025976419449
        ],
        [
            0.11434085667133331,
            -0.05262923240661621,
            -0.3028007745742798
        ],
        [
            0.0646059662103653,
            -0.040767304599285126,
            -0.03735905885696411
        ],
        [
            -0.004456533584743738,
            -0.05733729153871536,
            -0.1297411024570465
        ],
        [
            0.25463882088661194,
            0.19994840025901794,
            0.17593327164649963
        ],
        [
            -0.03382574021816254,
            0.1999189853668213,
            -0.07533830404281616
        ],
        [
            -0.10707049071788788,
            -0.1454026848077774,
            -0.20045921206474304
        ],
        [
            0.023225847631692886,
            -0.013768255710601807,
            -0.06959830969572067
        ],
        [
            0.029101677238941193,
            0.1493092030286789,
            0.06837713718414307
        ],
        [
            0.010977025143802166,
            -0.04123753309249878,
            -0.1432805210351944
        ]
    ],
    "2_bias": [
        0.0,
        0.0,
        0.0
    ]
}