{
    "obj_num": 1,
    "0_weights": [
        [
            8.990300178527832,
            -19.24219512939453,
            -5.01558256149292,
            -14.557367324829102,
            11.967145919799805,
            -0.7581691145896912,
            1.8252370357513428,
            -0.7125868201255798,
            5.539383888244629,
            -23.953357696533203,
            -1.7582608461380005,
            -16.769102096557617,
            3.324765682220459,
            0.754676878452301,
            6.386184215545654,
            5.920193672180176
        ],
        [
            -5.6996235847473145,
            -3.0345914363861084,
            1.167707920074463,
            10.360007286071777,
            22.514575958251953,
            -9.993864059448242,
            -2.61543607711792,
            -16.457612991333008,
            -0.6049464344978333,
            -12.884224891662598,
            -9.64050006866455,
            19.19652557373047,
            -2.4061434268951416,
            22.45198631286621,
            -9.202532768249512,
            -2.1210134029388428
        ],
        [
            0.7298439145088196,
            -9.448214530944824,
            -1.9406319856643677,
            -5.977578163146973,
            -4.040974140167236,
            5.872627258300781,
            1.9808874130249023,
            -5.746622562408447,
            2.437272787094116,
            18.927444458007812,
            -11.691208839416504,
            10.753320693969727,
            5.806450366973877,
            3.221770763397217,
            8.676850318908691,
            13.293380737304688
        ],
        [
            -5.839526176452637,
            6.132287979125977,
            -18.069183349609375,
            -7.1280837059021,
            7.026343822479248,
            -15.727648735046387,
            9.20400619506836,
            1.1761494874954224,
            0.044644761830568314,
            -17.838529586791992,
            -22.169584274291992,
            1.4445744752883911,
            -23.220752716064453,
            3.4578490257263184,
            -10.449037551879883,
            -21.329057693481445
        ],
        [
            -7.203745365142822,
            -1.3964107036590576,
            7.824644088745117,
            4.351565837860107,
            2.0754191875457764,
            -4.207644462585449,
            -1.134568452835083,
            -1.4033123254776,
            -2.194291591644287,
            -32.79677963256836,
            -12.201587677001953,
            0.7233211398124695,
            -10.623991012573242,
            -3.8900394439697266,
            2.8364341259002686,
            6.234739780426025
        ],
        [
            -0.2857442796230316,
            -3.3507754802703857,
            0.5185853838920593,
            -3.2904212474823,
            2.7590484619140625,
            -8.073525428771973,
            -4.5951690673828125,
            -3.061485767364502,
            -7.419610500335693,
            -35.607826232910156,
            0.594395101070404,
            -2.2723968029022217,
            -10.5612211227417,
            3.491502523422241,
            8.125025749206543,
            5.35963773727417
        ],
        [
            15.50010871887207,
            -4.134730339050293,
            -1.3278377056121826,
            14.97418212890625,
            -48.737422943115234,
            13.358772277832031,
            5.9124274253845215,
            -7.536629676818848,
            -8.71759033203125,
            -4.1736674308776855,
            -2.074815511703491,
            -17.50409507751465,
            13.088418960571289,
            -1.7806062698364258,
            16.195194244384766,
            -8.043672561645508
        ],
        [
            1.3669166564941406,
            -2.344428062438965,
            -1.0531857013702393,
            3.779849052429199,
            2.3159115314483643,
            -6.7288947105407715,
            10.34302043914795,
            7.711568832397461,
            2.5973258018493652,
            -42.25676345825195,
            -26.375749588012695,
            -9.38531494140625,
            11.412145614624023,
            3.133795976638794,
            2.1817352771759033,
            -11.6015043258667
        ],
        [
            -0.15801005065441132,
            0.8072299957275391,
            0.13924002647399902,
            -0.10300856083631516,
            0.44935646653175354,
            1.3783845901489258,
            0.5538079142570496,
            -1.3463536500930786,
            0.09027090668678284,
            -1.936895728111267,
            -0.33512189984321594,
            -0.53449946641922,
            -1.1818091869354248,
            -0.9323757290840149,
            -0.29621168971061707,
            -0.10664114356040955
        ],
        [
            -8.001885414123535,
            -1.2239352464675903,
            -3.691426992416382,
            0.9050410389900208,
            -0.665886640548706,
            -6.383310794830322,
            2.883002996444702,
            -0.5213303565979004,
            -7.23685359954834,
            -2.5302460193634033,
            -0.4649190604686737,
            -1.5327394008636475,
            -1.5872323513031006,
            -1.5976303815841675,
            0.11586955189704895,
            -1.0469690561294556
        ],
        [
            -9.632728576660156,
            3.0129387378692627,
            1.7075122594833374,
            3.0288894176483154,
            2.386228561401367,
            5.554506778717041,
            2.298207998275757,
            -0.3292800784111023,
            7.7537126541137695,
            3.6626861095428467,
            -0.1499580293893814,
            3.896744966506958,
            0.7194554209709167,
            -11.305776596069336,
            -0.05704842507839203,
            -1.8763926029205322
        ]
    ],
    "0_bias": [
        1.1813740730285645,
        4.128084182739258,
        5.051625728607178,
        -0.8338143825531006,
        -3.530622720718384,
        -0.26928794384002686,
        -2.4739036560058594,
        5.142866611480713,
        -0.5423902273178101,
        1.2951536178588867,
        -1.4594758749008179,
        0.041496917605400085,
        2.8477602005004883,
        -0.4797438979148865,
        -1.360647439956665,
        2.12957763671875
    ],
    "1_weights": [
        [
            -0.04690951108932495,
            -0.303805947303772,
            0.026355795562267303,
            -0.21231871843338013,
            -1.0375487804412842,
            -0.2605441212654114,
            -3.6101536750793457,
            -1.2420560121536255,
            -1.418235421180725,
            -0.04193500056862831,
            -0.4849218726158142,
            -1.0506484508514404,
            -0.42830002307891846,
            -0.02515004388988018,
            -0.13049140572547913,
            -0.076677106320858
        ],
        [
            -0.43303361535072327,
            0.25980475544929504,
            0.5079433917999268,
            -0.6096998453140259,
            -1.9802448749542236,
            0.16365565359592438,
            -0.06056688725948334,
            -0.23925070464611053,
            -1.2073606252670288,
            -0.009041039273142815,
            -0.30757632851600647,
            -2.800069570541382,
            -0.33873018622398376,
            0.1133522316813469,
            0.1070358008146286,
            -0.43071675300598145
        ],
        [
            0.22238890826702118,
            -0.4507558047771454,
            0.1585868000984192,
            -0.26799100637435913,
            -0.26649153232574463,
            -0.7891232371330261,
            0.25480934977531433,
            0.2228081077337265,
            -0.21726633608341217,
            -0.003238060511648655,
            0.11892037838697433,
            -1.6977806091308594,
            -0.2757876217365265,
            -0.052810605615377426,
            -0.24572715163230896,
            -0.1054045781493187
        ],
        [
            -0.3439984917640686,
            0.3164859712123871,
            -1.415085792541504,
            -0.7167766094207764,
            -1.454956293106079,
            0.20504765212535858,
            0.005590227898210287,
            -0.5006279349327087,
            -1.0543800592422485,
            0.08224813640117645,
            -0.736336886882782,
            -4.21800422668457,
            -0.0770014151930809,
            0.08256833255290985,
            -0.012923378497362137,
            0.166925847530365
        ],
        [
            -0.19696679711341858,
            -0.4191068112850189,
            0.6029313206672668,
            -0.25496330857276917,
            0.33451879024505615,
            0.03919743746519089,
            0.04990309476852417,
            -0.2006106823682785,
            0.41212522983551025,
            -0.11314273625612259,
            -0.0924387127161026,
            0.6056579351425171,
            -0.35395678877830505,
            -6.527670383453369,
            0.3045580983161926,
            0.6618303656578064
        ],
        [
            0.26051244139671326,
            -0.4840894043445587,
            -1.351179599761963,
            -0.3230378329753876,
            -2.586575984954834,
            -0.15779076516628265,
            -0.37047573924064636,
            0.006804510951042175,
            -1.186362385749817,
            0.043791383504867554,
            -0.2485664188861847,
            -2.9481287002563477,
            -0.41373857855796814,
            0.2962985932826996,
            -0.22227412462234497,
            0.12840011715888977
        ],
        [
            -0.06402243673801422,
            -0.30391791462898254,
            -1.6211366653442383,
            -0.3152931034564972,
            0.04001929610967636,
            0.3342849016189575,
            -0.32784315943717957,
            -0.5640546679496765,
            -0.16221286356449127,
            -0.02181917615234852,
            -0.5086594223976135,
            -4.020509719848633,
            -0.45943325757980347,
            0.23823419213294983,
            -0.15178276598453522,
            -0.1522236466407776
        ],
        [
            0.08330006897449493,
            0.001825324259698391,
            -1.5631499290466309,
            -0.21725192666053772,
            -0.9307529926300049,
            0.25741440057754517,
            -0.2962718605995178,
            -0.323006272315979,
            -0.33858442306518555,
            -0.18552783131599426,
            -0.8866412043571472,
            -0.676701545715332,
            -0.1933230757713318,
            -0.3231327533721924,
            0.4609372019767761,
            0.12178579717874527
        ],
        [
            -0.04960612580180168,
            0.2971356213092804,
            -1.069273829460144,
            0.1647520214319229,
            0.34487709403038025,
            -0.029092079028487206,
            0.4258629083633423,
            -0.4669450521469116,
            0.19355157017707825,
            -0.03386398032307625,
            -0.6757369637489319,
            -0.22424569725990295,
            0.26913103461265564,
            -4.597770690917969,
            0.17307019233703613,
            -0.04675836116075516
        ],
        [
            -0.7149558663368225,
            -0.3036919832229614,
            -0.5495741367340088,
            0.34521082043647766,
            -3.121394634246826,
            -0.2729344367980957,
            -0.6200711131095886,
            -0.34623706340789795,
            -2.86773681640625,
            -0.06752592325210571,
            -0.19600693881511688,
            -0.8272737264633179,
            -0.20169785618782043,
            -0.13498614728450775,
            0.04318590089678764,
            -0.09074582159519196
        ],
        [
            -0.19915007054805756,
            0.6820475459098816,
            0.11003265529870987,
            0.03453630208969116,
            0.4233420491218567,
            0.22353561222553253,
            0.03724179416894913,
            0.3266127407550812,
            0.12448986619710922,
            0.09298363327980042,
            -0.21356751024723053,
            0.2867473065853119,
            0.019536614418029785,
            0.24722780287265778,
            0.3488207161426544,
            -0.2150435894727707
        ],
        [
            0.07667236775159836,
            -0.1010298803448677,
            0.10690690577030182,
            -0.7803606986999512,
            -1.0494807958602905,
            -0.018568608909845352,
            -0.5237138271331787,
            -0.2980021834373474,
            -1.9328691959381104,
            0.008804494515061378,
            -0.47364187240600586,
            1.0235202312469482,
            -0.036910295486450195,
            -0.18484488129615784,
            -0.14339689910411835,
            -0.005407918710261583
        ],
        [
            -0.02669580467045307,
            0.3026404082775116,
            1.3446022272109985,
            -0.4375176429748535,
            -0.2996023893356323,
            0.010749059729278088,
            0.912478506565094,
            -0.36369258165359497,
            0.2289358526468277,
            -0.06421986222267151,
            -0.6833083033561707,
            0.5025195479393005,
            -0.17587098479270935,
            -0.07925001531839371,
            0.011361178942024708,
            -0.10681358724832535
        ],
        [
            0.3744521737098694,
            -0.00570433447137475,
            -0.014478297904133797,
            0.07304120808839798,
            1.2197790145874023,
            -0.30114611983299255,
            0.3002893030643463,
            -0.15792936086654663,
            0.47337576746940613,
            0.5455859899520874,
            -0.21688112616539001,
            -0.6526992917060852,
            -0.30618512630462646,
            -0.3268953263759613,
            -0.18379877507686615,
            -0.07685801386833191
        ],
        [
            0.2646910846233368,
            0.3109082579612732,
            -0.9478016495704651,
            -0.5963006615638733,
            -0.28907063603401184,
            -0.18564288318157196,
            0.10666245967149734,
            -0.16535085439682007,
            -0.19472633302211761,
            -0.05162324011325836,
            -1.2152700424194336,
            -0.5106367468833923,
            -0.4012385308742523,
            0.18028242886066437,
            -0.09958048909902573,
            0.010658016428351402
        ],
        [
            0.47547367215156555,
            0.25669607520103455,
            -0.16617503762245178,
            -0.28784486651420593,
            0.2671903967857361,
            0.2432383894920349,
            -0.2140498161315918,
            -0.617821216583252,
            -0.0630759447813034,
            0.010894570499658585,
            -0.43671682476997375,
            0.5903965830802917,
            0.009732901118695736,
            -0.1552748829126358,
            0.30442407727241516,
            0.046361494809389114
        ]
    ],
    "1_bias": [
        0.0,
        0.0,
        0.0,
        0.0,
        0.0,
        0.0,
        0.0,
        0.0,
        0.0,
        0.0,
        0.0,
        0.0,
        0.0,
        0.0,
        0.0,
        0.0
    ],
    "2_weights": [
        [
            -0.15595652163028717,
            -0.15250693261623383,
            -0.1418568640947342
        ],
        [
            -0.021744443103671074,
            -0.054868414998054504,
            -0.09034609794616699
        ],
        [
            0.06773052364587784,
            -0.19023683667182922,
            0.05626945570111275
        ],
        [
            -0.47985613346099854,
            0.02541031874716282,
            0.34312161803245544
        ],
        [
            0.05746397003531456,
            0.13243500888347626,
            0.11176862567663193
        ],
        [
            0.15681670606136322,
            0.1467595249414444,
            0.12690137326717377
        ],
        [
            0.06772684305906296,
            0.08587358891963959,
            0.131950244307518
        ],
        [
            0.11178301274776459,
            -0.3056609034538269,
            -0.3633035719394684
        ],
        [
            0.10547979176044464,
            -0.06105545908212662,
            0.011378108523786068
        ],
        [
            0.1802462637424469,
            -0.12217274308204651,
            -0.0941031351685524
        ],
        [
            -0.044261299073696136,
            0.050046466290950775,
            0.44120651483535767
        ],
        [
            -0.23488971590995789,
            -0.18038633465766907,
            -0.15635161101818085
        ],
        [
            -0.06626471877098083,
            -0.1311301589012146,
            -0.3603045344352722
        ],
        [
            0.17614488303661346,
            0.09839145094156265,
            -0.003185046836733818
        ],
        [
            -0.10380839556455612,
            -0.02433471754193306,
            0.132054403424263
        ],
        [
            -0.05413240194320679,
            0.05351622775197029,
            -0.1252550631761551
        ]
    ],
    "2_bias": [
        0.0,
        0.0,
        0.0
    ]
}