{
    "obj_num": 1,
    "0_weights": [
        [
            -133.3472900390625,
            -12.238082885742188,
            14.372807502746582,
            -1.6752313375473022,
            8.147560119628906,
            4.303361415863037,
            3.6744823455810547,
            2.6601319313049316,
            17.66899871826172,
            -8.939213752746582,
            -31.308063507080078,
            -3.723292350769043,
            -10.200175285339355,
            -6.513755798339844,
            5.407844066619873,
            -0.569645345211029
        ],
        [
            23.890960693359375,
            2.5944228172302246,
            11.534996032714844,
            23.271074295043945,
            2.124682903289795,
            5.380471706390381,
            8.463630676269531,
            -7.279812335968018,
            -47.46818923950195,
            -21.105497360229492,
            -127.93656158447266,
            -19.480899810791016,
            -6.630170822143555,
            15.2848539352417,
            -0.399912565946579,
            17.316011428833008
        ],
        [
            -0.0999760776758194,
            8.574247360229492,
            1.3441516160964966,
            3.740255832672119,
            0.3364105820655823,
            16.355419158935547,
            -7.370372295379639,
            1.4017441272735596,
            -36.18975067138672,
            5.902364730834961,
            -2.4635722637176514,
            12.23501968383789,
            -36.02077102661133,
            2.2228403091430664,
            18.197904586791992,
            9.757513046264648
        ],
        [
            2.295485496520996,
            1.7109336853027344,
            -1.0798137187957764,
            -20.93490982055664,
            -6.006619453430176,
            -15.371994972229004,
            12.262472152709961,
            10.808080673217773,
            -35.45071029663086,
            -20.697898864746094,
            -2.988489866256714,
            15.060209274291992,
            -9.640558242797852,
            -25.730329513549805,
            -0.27483490109443665,
            -5.322663307189941
        ],
        [
            -8.301870346069336,
            -14.287577629089355,
            -14.667963981628418,
            2.3344814777374268,
            10.904908180236816,
            -7.716550827026367,
            8.91234016418457,
            -12.595622062683105,
            3.065202236175537,
            -22.746780395507812,
            7.959916591644287,
            5.260326385498047,
            12.362167358398438,
            3.0788493156433105,
            -4.620456695556641,
            14.799571990966797
        ],
        [
            1.964950442314148,
            -4.629027366638184,
            2.920363664627075,
            -21.012617111206055,
            -2.052480459213257,
            -29.1300106048584,
            -11.517553329467773,
            8.57326889038086,
            2.222836494445801,
            -19.453203201293945,
            16.679738998413086,
            -10.96798324584961,
            19.08858299255371,
            5.148289203643799,
            -0.6213648319244385,
            -0.9145234823226929
        ],
        [
            1.7568466663360596,
            0.8974637985229492,
            -5.855606555938721,
            -1.4915612936019897,
            -18.566009521484375,
            6.044046878814697,
            4.550973892211914,
            3.461496353149414,
            8.210322380065918,
            0.9300100207328796,
            -18.194995880126953,
            -15.92050838470459,
            20.889602661132812,
            -5.971670627593994,
            -6.671834468841553,
            -3.489133596420288
        ],
        [
            0.683071494102478,
            2.8988564014434814,
            -2.508772373199463,
            16.540210723876953,
            7.085498332977295,
            10.58987045288086,
            -2.176682710647583,
            -0.8915562033653259,
            18.713136672973633,
            2.3424551486968994,
            -5.660885334014893,
            1.780908465385437,
            3.5998313426971436,
            -20.801525115966797,
            0.8399649858474731,
            -10.430497169494629
        ],
        [
            0.8028746247291565,
            -7.404154300689697,
            0.4884507358074188,
            -0.5551028847694397,
            -0.3698866069316864,
            1.1370192766189575,
            3.6348748207092285,
            0.6777127981185913,
            2.351703643798828,
            -2.5956227779388428,
            1.6530096530914307,
            -0.4863586127758026,
            1.2709074020385742,
            0.21700648963451385,
            -0.6601244211196899,
            -0.572027325630188
        ],
        [
            1.6127052307128906,
            -2.5690855979919434,
            0.27924323081970215,
            1.0393422842025757,
            0.04266747832298279,
            0.6756250858306885,
            -3.2165002822875977,
            0.7670654654502869,
            2.0922014713287354,
            0.3808363676071167,
            3.802494525909424,
            0.20724911987781525,
            0.43709930777549744,
            1.4009828567504883,
            -2.5956575870513916,
            -0.11416079103946686
        ],
        [
            2.9796411991119385,
            -0.6833932995796204,
            -2.3312718868255615,
            -1.4077332019805908,
            -2.2609612941741943,
            -0.5716232657432556,
            3.2901508808135986,
            3.034034252166748,
            2.643653631210327,
            -0.6993259787559509,
            2.488882541656494,
            -0.3860868513584137,
            0.4591310918331146,
            7.616841793060303,
            3.205378770828247,
            -0.5041614770889282
        ]
    ],
    "0_bias": [
        -2.8935341835021973,
        2.6880507469177246,
        2.716757297515869,
        1.6879892349243164,
        2.8879194259643555,
        -4.4017181396484375,
        -5.97862434387207,
        0.19088031351566315,
        -2.5491628646850586,
        2.7503786087036133,
        -9.780338287353516,
        0.29294243454933167,
        2.4735097885131836,
        -7.264534950256348,
        -2.404420852661133,
        1.1301851272583008
    ],
    "1_weights": [
        [
            -0.3677607774734497,
            -0.23766295611858368,
            -0.23229186236858368,
            -0.13818225264549255,
            -0.3803305923938751,
            0.3804221749305725,
            0.15221066772937775,
            0.12207075208425522,
            0.12109190225601196,
            -0.0020267912186682224,
            0.6410362124443054,
            -2.561917781829834,
            -0.4680096209049225,
            0.6400734186172485,
            0.17432615160942078,
            0.0478179045021534
        ],
        [
            -3.3162689208984375,
            0.08386065065860748,
            -0.2273181676864624,
            -0.2737942337989807,
            -0.035518743097782135,
            0.014776722528040409,
            -0.14066852629184723,
            0.28320467472076416,
            -2.015292167663574,
            0.07987277954816818,
            -0.3464777171611786,
            -1.3777340650558472,
            -0.706546425819397,
            -0.1389271318912506,
            -0.09543091803789139,
            0.026619549840688705
        ],
        [
            0.21760602295398712,
            0.08090881258249283,
            0.20821882784366608,
            -0.1708911508321762,
            0.02787129022181034,
            -0.2585110366344452,
            0.11674746125936508,
            -0.6674310564994812,
            0.7508417367935181,
            -0.09628518670797348,
            0.34357479214668274,
            -1.3962701559066772,
            -0.3696155250072479,
            0.0014438519719988108,
            0.04984072968363762,
            -0.05063344165682793
        ],
        [
            -0.4383012056350708,
            -0.6875253319740295,
            -0.46581998467445374,
            -0.6526578664779663,
            0.20619793236255646,
            -0.10762032121419907,
            0.32629695534706116,
            -0.5983400344848633,
            -0.3228786885738373,
            -0.3937254846096039,
            -0.20483087003231049,
            -0.6446396112442017,
            -0.3168434202671051,
            0.5136833786964417,
            0.19079658389091492,
            -0.0642719566822052
        ],
        [
            -0.04981518164277077,
            0.3026459217071533,
            -0.3625049591064453,
            0.0017833193996921182,
            0.21187877655029297,
            -0.43148502707481384,
            -0.24002747237682343,
            0.2256266474723816,
            -0.5942800045013428,
            -0.22990459203720093,
            -0.0037014263216406107,
            0.26975294947624207,
            -0.49075350165367126,
            0.12383061647415161,
            0.12792959809303284,
            -0.3791831135749817
        ],
        [
            0.6997056007385254,
            -0.06506409496068954,
            0.3236428499221802,
            -0.3938300907611847,
            -0.3856261670589447,
            0.08136537671089172,
            0.09422563016414642,
            0.6626851558685303,
            0.01110481470823288,
            0.7190529704093933,
            -0.07376213371753693,
            -8.481480598449707,
            -0.28835129737854004,
            0.052656907588243484,
            -0.5543299913406372,
            0.4193663001060486
        ],
        [
            -0.8999477028846741,
            -0.004287444520741701,
            -0.47646552324295044,
            0.04705667123198509,
            0.16595004498958588,
            0.08047991991043091,
            -0.06456539034843445,
            -1.2747448682785034,
            -0.19741466641426086,
            -1.2771097421646118,
            -0.05412634089589119,
            -5.734050750732422,
            -0.05110068619251251,
            -0.04088796302676201,
            -0.03485308587551117,
            -0.09180326014757156
        ],
        [
            -0.1302495151758194,
            -0.029866456985473633,
            -0.5360831618309021,
            -0.2026854306459427,
            -0.07560712844133377,
            0.21600863337516785,
            -0.27725037932395935,
            -0.10103508085012436,
            -0.7386139631271362,
            0.10714887827634811,
            -1.2723722457885742,
            -2.1231722831726074,
            -0.3599259853363037,
            -0.19195225834846497,
            0.028736084699630737,
            -0.016559576615691185
        ],
        [
            -0.2827742099761963,
            -0.20611710846424103,
            -0.11861637979745865,
            0.06479383260011673,
            0.05714934691786766,
            -0.22468435764312744,
            0.22207319736480713,
            -0.0592903234064579,
            -7.707636833190918,
            -0.13417479395866394,
            -3.467320203781128,
            -1.6461071968078613,
            0.03548779711127281,
            -0.42009398341178894,
            0.0326647013425827,
            -0.1740563064813614
        ],
        [
            0.4349377453327179,
            0.0361303873360157,
            0.12331631034612656,
            0.3911709487438202,
            -0.04847455024719238,
            -0.13384896516799927,
            -0.05292355641722679,
            -3.2074663639068604,
            -0.3167097270488739,
            0.1412702202796936,
            -0.15801551938056946,
            -0.07317925989627838,
            0.6896252632141113,
            -0.11909188330173492,
            0.0035384802613407373,
            -2.6900196075439453
        ],
        [
            0.1521373689174652,
            -0.11884615570306778,
            -0.12332458049058914,
            0.03453630208969116,
            -0.23483119904994965,
            -0.3626435697078705,
            -1.912746787071228,
            0.4116831123828888,
            0.33604729175567627,
            -0.29868006706237793,
            -1.199694037437439,
            -2.4345595836639404,
            -0.8030909299850464,
            0.9875372052192688,
            -0.30033132433891296,
            0.29964569211006165
        ],
        [
            0.004313959740102291,
            0.06294084340333939,
            0.06582033634185791,
            -0.3571370244026184,
            -0.17470911145210266,
            -0.03422313928604126,
            -0.14341944456100464,
            -0.2929364740848541,
            0.5530691146850586,
            -0.0937901958823204,
            -0.0497775673866272,
            0.2902403473854065,
            -0.21626172959804535,
            0.4413808584213257,
            0.07333571463823318,
            -0.22639372944831848
        ],
        [
            0.32314106822013855,
            -0.5778408646583557,
            -0.3912252187728882,
            -0.6935974955558777,
            -0.05278994143009186,
            0.11395872384309769,
            0.4341561198234558,
            -0.019355593249201775,
            -3.539564847946167,
            -0.10613923519849777,
            -1.9629101753234863,
            1.0914945602416992,
            -0.28576189279556274,
            -0.18006575107574463,
            -0.04946638643741608,
            -0.013015151023864746
        ],
        [
            0.12025798112154007,
            0.15760213136672974,
            0.2986321747303009,
            0.2771069407463074,
            0.44268104434013367,
            -1.291657567024231,
            -0.32423877716064453,
            0.06839972734451294,
            0.6560845971107483,
            0.4895589351654053,
            0.7600064277648926,
            -2.9440417289733887,
            -0.21673284471035004,
            -1.526316523551941,
            -0.6510204076766968,
            0.5171372890472412
        ],
        [
            -0.28112146258354187,
            0.1983451247215271,
            -0.24738746881484985,
            -0.27587902545928955,
            -0.14659398794174194,
            -0.1852850317955017,
            -0.8769652843475342,
            0.7630707025527954,
            -0.08568274229764938,
            0.2444334477186203,
            -0.24798661470413208,
            -0.9948691725730896,
            -0.9791027903556824,
            0.08458400517702103,
            0.039293475449085236,
            0.19692008197307587
        ],
        [
            0.11487994343042374,
            0.4418519139289856,
            -0.5670446157455444,
            -0.36216986179351807,
            0.13965310156345367,
            0.1945996731519699,
            -0.003489437513053417,
            -0.568519651889801,
            -0.12131387740373611,
            0.02336873486638069,
            -0.1997866928577423,
            0.050728656351566315,
            -0.14976459741592407,
            -0.6472777128219604,
            0.07889451086521149,
            0.1429031789302826
        ]
    ],
    "1_bias": [
        0.0,
        0.0,
        0.0,
        0.0,
        0.0,
        0.0,
        0.0,
        0.0,
        0.0,
        0.0,
        0.0,
        0.0,
        0.0,
        0.0,
        0.0,
        0.0
    ],
    "2_weights": [
        [
            0.010480347089469433,
            0.014034655876457691,
            0.07937511056661606
        ],
        [
            -0.15757374465465546,
            -0.14960834383964539,
            -0.16894763708114624
        ],
        [
            0.31058013439178467,
            -0.3378927707672119,
            -0.013976851478219032
        ],
        [
            -0.3803364932537079,
            0.04484844207763672,
            0.2719849646091461
        ],
        [
            -0.1797955334186554,
            -0.003973306622356176,
            0.10512403398752213
        ],
        [
            0.23754221200942993,
            0.16434501111507416,
            0.04189307987689972
        ],
        [
            0.06217925250530243,
            0.10030946880578995,
            0.16401852667331696
        ],
        [
            0.0730295404791832,
            -0.11763490736484528,
            0.08200947195291519
        ],
        [
            0.1391516774892807,
            0.03804854303598404,
            -0.005978269502520561
        ],
        [
            0.17020386457443237,
            -0.0347491018474102,
            -0.021377352997660637
        ],
        [
            0.15728789567947388,
            -0.09851115196943283,
            0.08881261944770813
        ],
        [
            -0.2937295138835907,
            -0.29421207308769226,
            -0.30853408575057983
        ],
        [
            -0.1299981325864792,
            -0.05781201645731926,
            0.4161221385002136
        ],
        [
            -0.1099972203373909,
            -0.10772935301065445,
            -0.2214869111776352
        ],
        [
            0.061308570206165314,
            -0.08357048779726028,
            -0.044615838676691055
        ],
        [
            -0.07080484181642532,
            0.10275034606456757,
            -0.08229508996009827
        ]
    ],
    "2_bias": [
        0.0,
        0.0,
        0.0
    ]
}